{
  "weights": [
    0.008934633853606627,
    0.03881680249982439,
    0.07761482460503366,
    -0.033874888959937705,
    -0.08610636126419256,
    -0.037849028928415906,
    0.0057283233492515795,
    -0.060281426562515346,
    -0.022650078062504894,
    -0.005034304352003291,
    0.08605074152872613,
    -0.03599634733254324,
    0.009997553008541812,
    -0.15260798861467728,
    -0.038138392079746515,
    -0.05374124772566111,
    0.016114430478555014,
    0.09610139774587398,
    -0.07369540956122782,
    -0.06200528205712834,
    0.06002927706307448,
    0.008030385671175005,
    0.05659620249236383,
    -0.029643516677567025,
    -0.05031506144203633,
    -0.05165919417275981,
    0.0038767377677527276,
    0.043684588607403985,
    0.029043065518604777,
    0.03335461719200697,
    -0.02281557366820179,
    0.04367880336042082,
    0.026062522511153347,
    -0.05168162833917265,
    0.010029302827636628,
    -0.005279839599973682,
    -0.266229901259147,
    -0.32894190536653606,
    -0.7488292764963184,
    0.3717510170037563,
    1.363819275969707,
    7.2884502058144465,
    2.160400722693162,
    0.24115606532203812,
    0.20972676122834233,
    9.136403775731564,
    19.62485495349979,
    20.38243955147529,
    2.874503153063132,
    0.08719254793339343,
    0.02100409947676843,
    0.026150182049503312,
    -0.08005837905852367,
    0.09460235696952443,
    -0.007865957951850355,
    0.045545433434162036,
    0.05376608275647762,
    0.02394608605512312,
    0.06002689525641941,
    0.0826733597242065,
    0.030385247320520625,
    0.060971456469273974,
    -0.816660327003606,
    -0.8968178090035425,
    -2.02958851028748,
    -8.466560679385188,
    -10.666275692751295,
    -26.445734157687497,
    -15.223039938281413,
    -9.180485703158574,
    -8.249392810063593,
    5.176330756139023,
    10.194385630246313,
    4.6862483405908835,
    17.06193274472425,
    12.96942149829157,
    17.000528468360745,
    16.498348155739606,
    -0.9356534260792252,
    -0.124098518790093,
    -0.046286693255889466,
    -0.08914662223502605,
    -0.0829266979134477,
    0.028891784470120724,
    -0.07293850862482268,
    0.07229602485892025,
    -0.0734816202455884,
    0.13318013725865457,
    -0.05037470337747191,
    -0.8637412407162429,
    -2.7474020328739686,
    -3.144315917821704,
    -11.009309711951301,
    11.613150632073443,
    15.113110186623334,
    -16.07576255171114,
    -5.1106123361330935,
    -5.710726857909443,
    11.978113320069102,
    3.568399773282315,
    1.5486920527871473,
    0.9205639572368083,
    4.532216636369636,
    -1.8355013092606376,
    7.2626318473997555,
    9.705072543063707,
    0.818518055269824,
    -1.124447105295412,
    0.016909582001108134,
    -0.020895840854428055,
    0.058017377304671006,
    -0.0235579803545969,
    -0.05081808844333329,
    0.03756491413276858,
    0.09241214592678723,
    0.01966271451982827,
    -0.28060736462532193,
    -2.098907877971437,
    -5.586909116737939,
    -15.212968675051904,
    12.334911254402327,
    27.79581600299439,
    10.22401256509326,
    4.15942587636805,
    -8.393477587542963,
    -8.31478039045072,
    -33.13248220569973,
    16.813696561601514,
    11.982761426411582,
    -12.774246443484717,
    8.837526963041116,
    1.5097379110841973,
    0.7987140238657596,
    4.499692590403708,
    13.276466430994388,
    -3.1791371880872346,
    -1.5934036818120287,
    -0.12525251506761073,
    -0.06482972927750992,
    0.0602334199686497,
    0.0742163766015553,
    -0.05034108722457468,
    0.002030315496628853,
    0.06143936333293813,
    -1.1179650647247736,
    -5.1983985390031435,
    -16.149874965926035,
    -7.681750087562963,
    -5.430884070840093,
    1.0823684019718123,
    -11.076276594302664,
    12.968223234334692,
    -0.9494985215229126,
    21.038124019780184,
    -0.49849095975513774,
    -0.7457239101105466,
    31.847972704241794,
    -6.516447020066202,
    10.135272897826693,
    6.143114158673154,
    -6.581049372303076,
    2.9284797173747337,
    6.192640384886453,
    -6.180097990308956,
    -3.979354844352295,
    -0.8837792308233821,
    -0.10399159904873105,
    0.0031525575095196906,
    0.06539174318855889,
    -0.05731454830342463,
    -0.21108461651465996,
    0.036341403460655786,
    -2.2717485358487304,
    -11.082841014002849,
    17.67231950465612,
    -9.74594364494489,
    -10.320382590516163,
    -8.232869169527184,
    -3.8462364366600963,
    6.056507725380153,
    18.512558931175487,
    9.302496001161979,
    -0.7320116562003391,
    10.722971070852351,
    13.18879360646758,
    -12.978931486821542,
    21.765779280758554,
    4.175879394579622,
    4.63436346034234,
    4.287819873607283,
    8.959668087907414,
    -7.462052027023722,
    -6.674356315868494,
    -2.972332262754393,
    -1.6301508280283104,
    -0.1909247545661649,
    0.012396345575048845,
    0.007565069981720109,
    -0.01613658326123873,
    -0.37346158403226754,
    -3.8052318606230333,
    -6.601942591484392,
    0.8764538037824194,
    -8.4068369917272,
    -6.067835858365639,
    11.390062968452028,
    -21.84055967547921,
    -0.6683380739193837,
    -8.333424943487385,
    17.997486219558407,
    -4.003983286796659,
    4.614678433942403,
    -4.767594443674657,
    11.464347971118,
    18.220038327003266,
    5.504698551789939,
    5.2729952962399285,
    12.513255092661307,
    -0.025557711655195367,
    -1.5494946340855074,
    -8.163965747820265,
    -5.565773264013656,
    -2.717277936725648,
    0.15222710623404828,
    0.05266530257155272,
    0.0332986458799031,
    -0.2005913492985551,
    -1.2083571276164675,
    -7.459939315253372,
    6.061629301108256,
    2.0548500463599404,
    -11.378627110773191,
    -19.53489868981896,
    -3.551918866297997,
    -7.629611431966381,
    -0.3605362882910836,
    -21.219484159602196,
    -3.653286620582516,
    7.7846131461762855,
    31.005077275794882,
    21.198875354402094,
    -0.6823636821259953,
    19.32050614200984,
    -10.187672458305462,
    6.039967521473789,
    6.3099288712111266,
    -10.945247057044835,
    6.152903450358536,
    -8.830761189830536,
    -7.747914052485259,
    -2.6150566145814484,
    -0.0031217470766376192,
    -0.03371304500544837,
    -0.10108226481359939,
    -0.025639471270840403,
    -3.007964626337388,
    -11.590853435878255,
    7.48665954847183,
    16.904370862650307,
    8.846674248484705,
    15.303291602126114,
    0.32567374576932084,
    9.98384249790589,
    -17.98733554663167,
    -6.055284520474696,
    5.664997316159772,
    -13.889466765762196,
    4.5068650873383005,
    -0.8701699356307184,
    10.570630376754023,
    10.143859370031938,
    9.867107570187825,
    4.784596341198097,
    -0.22958871521729915,
    -1.3118490514027803,
    5.385616208077704,
    -7.146354656409918,
    -8.034685746108332,
    -2.0916463657483737,
    -0.003934125164704873,
    -0.06929863948951388,
    0.004695628922527164,
    0.28847707790397326,
    -3.9797821600878036,
    -3.6748962044831006,
    2.953656945375311,
    12.330031152833618,
    3.613687396259068,
    1.8345865457077546,
    8.618923342707582,
    -14.435906167016498,
    17.222250910235772,
    0.8875927856062416,
    -22.169718796253175,
    -11.51020674322026,
    6.0672889300908,
    14.597195661645706,
    11.544908703545694,
    19.63400084339858,
    2.462996004664641,
    2.734754238053024,
    8.160564929057037,
    6.317891985658942,
    10.961558473784594,
    -1.8532183234459882,
    -4.850178367095474,
    -2.0573324680028415,
    0.062132937114716874,
    -0.02028586282820077,
    -0.06901324487163774,
    -0.15483810011907478,
    -2.942497417768282,
    -2.7455064726697955,
    -3.6189533987020015,
    3.62793738875679,
    20.804811339201787,
    -2.8271865884694014,
    9.817704035175884,
    -8.41326786791298,
    3.618154997529052,
    15.962473960206133,
    -47.9807882026931,
    -8.737123038428601,
    -2.455525937116802,
    16.02020863394223,
    1.2840563850872069,
    15.097006324919906,
    11.64356496592083,
    -3.6418299254486795,
    12.4336880348324,
    5.836794264915508,
    10.625040368596771,
    1.7966890081330835,
    -1.9492693177692901,
    -0.6000439944017381,
    -0.021205938541292477,
    -0.0709592542159098,
    -0.12888252756979895,
    -0.013549055024310601,
    -2.907332029546657,
    -5.091756339881895,
    6.212356656307127,
    4.518927532398094,
    15.528013069629322,
    -6.524168476069636,
    8.71952869894532,
    6.040044220995896,
    0.40375588187523004,
    5.39720459561106,
    -17.623455697273595,
    -35.261841188908,
    -21.695027539137758,
    -29.499861285144917,
    19.979853987355423,
    3.0541561078243364,
    8.132795000230637,
    -2.499756630991334,
    9.213560554208613,
    10.712649469058386,
    -0.19796887460016244,
    5.98501943132507,
    1.1767387801548548,
    -0.06882427167186363,
    -0.05307521246830779,
    -0.022903938872866764,
    0.09008632717962758,
    -0.005332897891974652,
    -4.501334438452975,
    -5.822259436864988,
    6.4269519825748285,
    8.672586112245478,
    17.70191254870846,
    5.9613178131340945,
    -6.877593497380331,
    -1.4166130739096001,
    14.675026694448821,
    -1.2532411613395609,
    -27.9297490385173,
    -14.061492628513047,
    1.1718571399021498,
    -6.13180396334214,
    2.007651528345967,
    1.8589509653461629,
    -3.3564326287143413,
    -16.444808925574456,
    1.9612169310681686,
    12.202055097445017,
    -4.775992975199506,
    4.2531214090925,
    2.056118191835112,
    0.015644952479243187,
    0.0037375966374000036,
    0.05191895302156191,
    0.002954181294291756,
    -0.16408240017545236,
    -5.381465327352147,
    -8.487678989406273,
    4.760544698384894,
    17.171244089343276,
    1.6968812499823862,
    15.212270642936451,
    -0.5509286253940362,
    6.37248587893157,
    -25.455069516846244,
    11.696677714836564,
    -31.003362627722545,
    -28.882053898854174,
    -18.87625802200132,
    -14.436267714156,
    -4.387801057093533,
    4.297022041570908,
    -9.840507079159572,
    11.961737994064215,
    0.41881480631836243,
    10.741478443066107,
    -2.6848615137256977,
    4.276849692049284,
    1.5193791284807094,
    -0.056402480471711994,
    -0.06658149915021305,
    0.09406318166596031,
    -0.0003165240341077291,
    -0.5572751083793509,
    -5.532789560930741,
    -7.647389620239762,
    5.886432332842551,
    14.311965515614606,
    0.07861256055787062,
    22.684227801861166,
    18.654394679914045,
    -17.471705368333247,
    15.915951063056486,
    -21.59899004842571,
    -35.54773361755501,
    -20.309971217427332,
    -2.3340533879750227,
    -23.521086423823608,
    -13.383529911415293,
    3.616434440522672,
    -4.587009019401428,
    17.311671952657644,
    -1.5148159572915827,
    13.274950338266581,
    -2.6390663007489996,
    5.482301072285658,
    -0.17161937086185325,
    0.026419121646313038,
    0.07455978859158363,
    0.08885977076765303,
    -0.08860491234139771,
    -0.38073226094922874,
    -6.4852812440785,
    -18.292272775638168,
    16.480344336319042,
    -2.6633902294950933,
    10.65312157821876,
    16.28213010160344,
    11.266481057719687,
    2.1461517634637888,
    7.2655007122937825,
    -12.297806097709163,
    -23.990728987863008,
    -9.398581847627407,
    -4.642833048702528,
    -11.395836958632469,
    1.5212265217722318,
    2.480373313589305,
    -4.882583964488289,
    -5.569909575543155,
    1.2490137920028541,
    -14.759597459519483,
    -3.3099910115273437,
    4.0162921036946955,
    -1.2481865935945544,
    -0.18906101872463882,
    -0.09609988575177998,
    0.054212974062853164,
    0.027616375253882216,
    -0.44792421369411384,
    -8.034387920778215,
    -16.401879445824935,
    12.73664579710193,
    3.598855072521839,
    -7.2326278095466225,
    6.84908757973108,
    -16.96446723622371,
    4.009554452342002,
    3.9847130952865943,
    -15.291665684992964,
    -15.874013368657598,
    -26.722953494700167,
    10.331619889816361,
    -13.641469062418356,
    19.481535329635985,
    -12.314784020333688,
    17.674202657213172,
    -8.782991524414628,
    8.063808377903735,
    -4.867705959787423,
    1.4689379506351614,
    -0.6307863767536819,
    -0.47145767869080635,
    -0.13899214891369688,
    0.37310957709509013,
    -0.054029648049843816,
    -0.04174761195259312,
    -0.7191552554424867,
    -10.380428119530112,
    -15.865676185345688,
    0.6685922142843762,
    16.732498788012315,
    3.9282352340684645,
    -0.5533798332397597,
    5.50918609773315,
    9.35458536041424,
    12.6750868955378,
    -28.513574821202013,
    -10.21724988228999,
    -10.582964530876648,
    -16.816611826644632,
    -18.409115671274105,
    0.23404503697794196,
    -9.96211727431273,
    -8.065054854571043,
    -6.303233470580683,
    0.5473309714003198,
    0.18428373331612968,
    -0.6101024099851409,
    -2.580844477167023,
    -0.03863478947754793,
    -0.032386973507211606,
    0.04424609382134559,
    0.06242969022348885,
    0.11601182134941691,
    -0.7328165966127537,
    -9.731309323528576,
    -19.830410733014855,
    -6.073231854890613,
    13.995406546037259,
    7.853941226467314,
    -13.309569244280835,
    10.401113472594647,
    -6.9073325734423685,
    9.209441229034416,
    -0.8285606124433603,
    0.5118291296326086,
    13.025811573375956,
    -12.782375243325307,
    15.884174924648908,
    -6.154196271312925,
    6.543415436796163,
    -10.777458927577444,
    8.725516217098535,
    -9.137744016303122,
    0.9175708005115549,
    -4.75344565906531,
    -4.856015458665616,
    -0.7075767655697478,
    -0.10638039847270445,
    0.03503140143560851,
    0.0024121127135906806,
    0.3732809654107696,
    -0.7828086919055464,
    -7.95002942087337,
    -14.736504307509614,
    2.5717882988764527,
    -6.910743662927309,
    3.2518260331569437,
    -25.624314847583353,
    14.687102900562175,
    26.073472544070377,
    -14.869070503026101,
    20.57957494232094,
    -5.446884253061024,
    4.760425023101991,
    -31.989177915256565,
    -11.479763117431009,
    5.841314064154959,
    -2.4803125618161,
    -2.709994234254212,
    -13.919078896226225,
    -3.915198489442069,
    -5.4814768593342755,
    -7.312072858307636,
    -3.446145133640375,
    -0.48912497693325346,
    -0.057141510298586225,
    -0.07737779370327275,
    -0.0818415852169257,
    -0.15244032223067716,
    -1.676318189740956,
    -5.27265875474467,
    -8.792734696991095,
    -2.976460813907791,
    -5.415132307604494,
    -4.80969192326565,
    -4.839184366625891,
    9.31974703842057,
    -0.9218398541683364,
    -19.454110183114068,
    21.57824353031177,
    15.21703404646573,
    -7.291261561815026,
    -4.907701717356108,
    2.643000456058299,
    0.10174257205006665,
    -13.504572004074449,
    -10.485040687036452,
    -7.74361980546589,
    -9.8226187635507,
    -7.332787088597729,
    -6.1776140547664085,
    -2.0069786591306826,
    -0.2146245457359135,
    0.30907854338660723,
    -0.04787351385294928,
    0.020944182060908936,
    -0.0626715169982854,
    -0.963101424086934,
    -4.008140795206679,
    -10.659053923346114,
    -11.411937007504942,
    20.19510577536013,
    -24.04093612042082,
    -13.70314959994303,
    13.966347887472493,
    0.05769025037467401,
    11.635100632060695,
    1.9939641833214932,
    5.711422235515341,
    -19.513220363972223,
    -1.821161471160182,
    -17.19368109578984,
    1.4694157659912959,
    4.3219081407142,
    -14.576215483615423,
    -10.05897353283582,
    -10.556190997373552,
    -7.060075301204971,
    -4.073039220500002,
    -1.7117496162882633,
    -0.08038337326994789,
    0.016516012041250333,
    0.008683179043442207,
    -0.029611039251267957,
    0.05908759056235546,
    0.053494320826777936,
    -0.8037931572546192,
    -4.85493055580465,
    -4.321289957514608,
    -13.264438340166588,
    21.588865453258634,
    -6.475758910485743,
    21.558184046965195,
    8.653638103404457,
    4.451948899319658,
    -4.423047367725518,
    -0.5901480743940505,
    8.295513433355424,
    3.600828423550544,
    -2.9153343308279247,
    -14.392165846504144,
    -6.905628619252713,
    -15.599382990112959,
    -14.239839624251058,
    -11.643184358017436,
    -6.19133403231919,
    -3.2428096992813775,
    -1.505672484151591,
    0.00763182423552226,
    -0.06411047274811962,
    0.061583790794252,
    0.060259655354473335,
    0.040751171334134806,
    -0.13760056223132278,
    -0.28041177660357103,
    -1.7880284152536912,
    -2.7918800043293897,
    -5.6031428261478595,
    -10.827439381813502,
    -7.475883646023654,
    8.96450019992667,
    -4.663339501247976,
    4.175695094319885,
    1.4352778378940174,
    9.879350471154611,
    0.8011147530039541,
    -6.22126633923341,
    -9.920952829021179,
    -10.637215032823697,
    -15.34980528536724,
    -11.44855080674597,
    -10.272701391237298,
    -8.124882215732457,
    -5.294423263884928,
    -2.615555023183924,
    -0.7362235068063456,
    -0.1338276537353885,
    0.06717367675144875,
    0.0855877282216422,
    0.06255586481385739,
    0.08437711134455009,
    -0.05319565506186044,
    0.045583631949235204,
    -0.003534464982612332,
    -1.2950514410825564,
    -5.893064891927645,
    -14.946668230262338,
    -29.691161639788486,
    -24.12123007284773,
    -22.9791563755069,
    -9.405817989879635,
    -1.55833146682093,
    -24.80776717152928,
    -24.372240764404026,
    -30.07257186272194,
    -20.18664747509072,
    -16.494936790148014,
    -10.5559391808439,
    -7.279428217320273,
    -4.497668562660656,
    -3.5110227055107277,
    -2.774379791235788,
    -0.8770383502521789,
    -0.20469305274834423,
    -0.08978023753486469,
    0.08149727532869996,
    -0.058699032092928795,
    -0.04474252680506968,
    -0.009580090863486393,
    0.01089887277526462,
    0.028104774431077895,
    -0.004046789655538202,
    -1.1512707426972806,
    -4.319429494828955,
    -7.861712261236574,
    -11.795576472262624,
    -15.732299694445812,
    -15.4898075469361,
    -12.13537355005152,
    -7.614668153417018,
    -9.434480124360526,
    -11.871367763336606,
    -9.624532839627223,
    -9.641994213662043,
    -5.062197260123449,
    -3.266520564313204,
    -1.7359662094827828,
    -0.6425976819550148,
    -0.9566737830967916,
    -1.5081700196237822,
    -0.29907227797825015,
    -0.08601486718550207,
    0.07436468279931319,
    0.03847571780172501,
    0.05555945096691911,
    -0.04975853694745919,
    0.05719839259241116,
    0.026475399835884428,
    0.005686742909386339,
    0.05925541850165658,
    -0.41622284523657654,
    -1.1553967796515503,
    -1.0224124512226345,
    -0.8406508633118123,
    -0.8270773163979677,
    -0.23837950697625557,
    -0.3255801331967237,
    -0.4675776587569085,
    -0.9601130570795767,
    -1.88654390533241,
    -2.3564705219515836,
    -1.6449331760724013,
    -0.4058354036200124,
    -0.3795308213101644,
    -0.018151555874337998,
    -0.054743004035034314,
    -0.42565036898326447,
    -1.5060011780029792,
    -0.44061160532910515,
    0.0993044043041863,
    0.03041290084703993,
    0.00047830735155460213,
    -0.09154331650249492
  ],
  "bias": -114.784489677675
}