{
  "weights": [
    0.06340195078040992,
    0.10822520374973654,
    0.16642223690755045,
    -0.000812333439906554,
    -0.07915954189628885,
    -0.006773543392623871,
    0.058592485023877344,
    -0.040422139843773026,
    0.01602488290624264,
    0.04244854347199506,
    0.17907611229308915,
    -0.003994520998814879,
    0.0649963295128127,
    -0.08997080645142767,
    0.08173358835096844,
    -0.03061187158849167,
    0.0741716457178325,
    0.19415209661881097,
    -0.06054311434184173,
    -0.04300792308569251,
    0.1400439155946117,
    0.06204557850676248,
    0.13489430373854575,
    0.005534724983649444,
    -0.025472592163054503,
    -0.027488791259139722,
    0.05581510665162909,
    0.11552688291110597,
    0.09356459827790717,
    0.10003192578801043,
    0.015776639497697295,
    0.11551820504063123,
    0.08909378376673002,
    -0.02475773662640604,
    0.08204395424145494,
    0.12266847589415711,
    0.0645375010524559,
    0.06470478900901908,
    -0.2421850912150668,
    18.643155937270336,
    39.433493619836916,
    16.73308707342755,
    -0.22116362184261107,
    26.10138115680658,
    74.35923720066603,
    35.29231154595028,
    -0.9473646285738289,
    0.1363652095658736,
    -0.0824805645229491,
    0.18078882190009013,
    0.08150614921515262,
    0.08922527307425493,
    -0.0700875685877855,
    0.19190353545428665,
    0.038201063072224456,
    0.11831815015124306,
    0.13064912413471644,
    0.08591912908268468,
    0.14004034288462908,
    0.1296570984098391,
    0.10516610627489856,
    -0.5321310505902068,
    -8.768990490505413,
    -17.879873772328843,
    -35.78702982425474,
    -65.6771939602543,
    -57.15217824500933,
    -63.159424765942916,
    -73.24438343683387,
    -70.53649326062029,
    -94.31285392097779,
    -110.60597445402672,
    -77.98753920168969,
    -89.72050984205487,
    -100.39363029467856,
    -86.84016187020958,
    -76.88873670922362,
    -34.33812482521402,
    -12.287656609707074,
    -4.17850071936161,
    -2.2618418045897166,
    -0.0740140509995979,
    -0.07439004687017153,
    0.09333767670518109,
    -0.05940776293723402,
    0.15844403728838033,
    -0.060222430368382596,
    0.12129961765268771,
    -0.07103264330150191,
    -8.3497883316626,
    -39.20098540225212,
    -60.78388564143839,
    -72.19131750910351,
    -129.67445052247817,
    -149.13962883771202,
    -57.27570265109556,
    -101.36191850419931,
    10.153792066077202,
    -70.10730060813204,
    -22.871047398899996,
    -43.33196192081956,
    -31.179448181791614,
    -85.90585151603317,
    -66.15025196389124,
    -44.484111052430364,
    -118.32262647952159,
    -89.82169350533054,
    -26.92525889323722,
    -6.278694450527753,
    -16.519226114222818,
    -4.087444522278289,
    0.014663029468104646,
    -0.026227132664999944,
    0.10634737119915283,
    0.1886182188901808,
    0.06255289530915417,
    -6.165852223408573,
    -29.890126522839488,
    -34.392657792754015,
    -36.29451183610723,
    -23.123927236043457,
    22.421429886844926,
    -44.3919811523605,
    58.199491755728154,
    -60.06415755778478,
    23.31447647314715,
    -63.5688409556088,
    66.33460366593218,
    -78.37291668391107,
    23.581512687715144,
    32.34705515044523,
    -12.929687251020088,
    -11.050811317142204,
    -19.566872879100337,
    -25.409712118213996,
    -67.44882342918964,
    -42.53863493448279,
    -22.776525831424962,
    -7.238597535092737,
    0.1403501299529745,
    0.1613245649023329,
    -0.025511630836862018,
    -1.345660409107998,
    0.1031590449994072,
    -27.533535832381276,
    -57.71465663203413,
    57.55495225699339,
    -31.582448660756206,
    -7.709855518024726,
    -17.08415327939491,
    31.192820402664367,
    -4.490900442615733,
    -35.00430660581322,
    36.1019507355543,
    18.318675325073542,
    -0.3837623357528668,
    -8.573276237756609,
    12.300388293430327,
    -10.261678888553279,
    -40.6188581737554,
    12.405131823898625,
    -28.647103953349244,
    -30.994451187376022,
    -26.567029338404662,
    -86.73685579594003,
    -70.58961002270568,
    -12.251399163278979,
    -16.253624104912195,
    0.14808761478283833,
    -0.035971822455136956,
    -2.1309210424190494,
    0.13274739930863075,
    -47.59421103906719,
    -19.83632034453369,
    -8.618344272427716,
    -36.97356252624075,
    18.872955525990825,
    -106.40353904840795,
    14.13835122736321,
    -29.342767823694064,
    0.9626619261761693,
    21.922273413508115,
    0.013923692170643154,
    9.201103665103592,
    -9.72716253147507,
    16.70713218153386,
    17.84061009761218,
    9.071877915399577,
    -37.675337162427944,
    27.450494516293915,
    32.410678602449266,
    -10.500548628770904,
    -124.6001815326267,
    -128.2940278058963,
    -75.08199094792478,
    -52.76591654361396,
    0.06859451836257327,
    -2.5152406303215376,
    -1.3957931101859757,
    -4.241780611342519,
    -28.254906614463945,
    -0.5263256519323716,
    5.546386588026641,
    2.086273924173552,
    -64.28893025813663,
    10.26003562914902,
    -13.851074807337046,
    21.407375242062443,
    -31.098255062290463,
    22.36522932933819,
    -11.238621989018963,
    -11.498805878497732,
    -33.87668578315866,
    72.75658078020652,
    -11.671060156552722,
    57.89934194533301,
    -12.709742349756759,
    -26.480940890419685,
    -18.004807155718154,
    -4.855536068775321,
    -64.02912509231871,
    -139.36360107249126,
    -67.44556396391204,
    -4.719541693590105,
    0.12899795385732904,
    0.12300679234926637,
    -5.28512231806548,
    -10.86088863260118,
    -25.184203090527053,
    -62.50132075422004,
    14.304804481304751,
    -1.0675877249827788,
    7.573946082920884,
    -7.331995946505223,
    -38.18412303030388,
    -26.330392667730774,
    51.31295023118297,
    -13.880282872050842,
    19.926507954556993,
    -10.408089968660839,
    76.94160714924841,
    -6.158721993776713,
    46.71799450713172,
    -18.81421456981014,
    24.26395128221214,
    3.287775659758321,
    48.66760000266948,
    -5.063880118580217,
    -62.38743590239252,
    -190.04598872578666,
    -62.67217315716627,
    -3.0522120323796624,
    0.003959844256533326,
    -1.1260351619262816,
    2.843952557799621,
    -51.098888115976614,
    -63.8253389773466,
    -30.057363618468703,
    34.026026882210864,
    -27.022518039037383,
    0.47011387377857267,
    12.913863559831201,
    39.53988139391796,
    -21.827944496418816,
    -32.33727972188928,
    53.72802538600419,
    -0.3846707368795743,
    -29.916761192521932,
    15.355627449496456,
    21.286180859249278,
    25.78308317269591,
    66.37560253175172,
    42.16342392356419,
    -29.871853661059767,
    -58.398302988868394,
    37.28395372388264,
    -27.482061396379265,
    -202.2689109721032,
    -104.72423425450492,
    0.09456940048823681,
    -0.04306560629309436,
    -0.3678977330867975,
    40.95671561685597,
    -46.467085004837585,
    2.9575968697460104,
    16.648779535710624,
    7.9761055527787015,
    47.77100168262527,
    -23.47888488732021,
    -11.16332086829079,
    -27.257212191701193,
    53.62719989476396,
    2.343095060761596,
    -26.48175466497133,
    23.019866355757987,
    -3.2335960166291335,
    15.38726408070883,
    -1.3063428270328603,
    48.2279424415727,
    -68.53132952241391,
    -1.930927466448333,
    1.470082687702992,
    69.30048503731184,
    28.1115730047968,
    -22.013709838110042,
    -147.8122087271137,
    -93.87641046671001,
    0.14319940567207531,
    0.030335911640051783,
    -0.029931632013338955,
    -8.07049244429626,
    17.33484210864174,
    -51.27308323841665,
    -38.94731245099412,
    29.642435494901115,
    -4.413606520608676,
    -0.8370740003503254,
    -24.76138512370635,
    -8.214842978340636,
    12.032761908057875,
    -26.918524353809417,
    35.26705299010216,
    -58.44780220470107,
    -29.935524199792056,
    -25.77151057849613,
    22.73502575410214,
    -35.44407874791458,
    52.30487686064548,
    2.854313935356677,
    16.639473228720504,
    -13.109808602626813,
    20.75056055289605,
    -17.386848840741532,
    -170.2679628001826,
    -87.50694834454382,
    0.018191092188061267,
    -0.05643888132386471,
    -0.401206144295875,
    -5.9425000531247,
    26.4653548968565,
    -94.3394580392349,
    4.326358513873188,
    -24.456902819048697,
    -53.01168627790832,
    -9.9635468317506,
    27.1313518719481,
    -38.301992492035374,
    5.0661044110472675,
    49.31968924635583,
    -9.232595310619097,
    -45.873585312774274,
    -74.54442366164614,
    -40.8232036924216,
    -21.03174843073261,
    0.6092929852664715,
    -6.633866323183656,
    40.70765917116172,
    20.36269377249019,
    10.273033027116334,
    -33.66395331189991,
    76.28441149992894,
    1.4381081702322809,
    -38.889001113390165,
    -0.0296128187024617,
    0.015644091690699857,
    -0.9153410974658527,
    -3.387293464485021,
    -3.1336487165030134,
    41.79566966823194,
    -60.896219084960315,
    69.6032909330745,
    21.51063352894727,
    24.180270837349546,
    5.414845048047422,
    33.657786271487666,
    -20.379342311269536,
    -7.279332330245506,
    -34.190741204837536,
    -40.31141541335745,
    -81.12421429014627,
    -39.875823592071505,
    -6.786581531010156,
    17.14489703625494,
    -7.476001884246826,
    -67.35274280012615,
    -41.76129225045508,
    45.94331794028587,
    22.61665759602423,
    -20.268200239302516,
    54.44758905245867,
    -1.8034737477517233,
    -0.6443936050439001,
    0.12787842953234285,
    0.035725389588496456,
    -19.201594188498472,
    -79.56366857926349,
    -37.10028318999184,
    44.990464106402406,
    -4.951310336572373,
    40.169145404386654,
    -30.15735874147736,
    25.033724708967707,
    -33.00662412278099,
    30.216395724726684,
    2.271898925195713,
    12.433838411358138,
    -105.67696320122275,
    -21.293269385941787,
    -74.27034274770529,
    17.580239590831063,
    -6.797408114112849,
    -16.096407677561647,
    60.056195226391665,
    38.91522220947883,
    -10.330135276578858,
    40.47676655294093,
    -29.052254873690952,
    44.8601863397799,
    -18.15095666188404,
    -0.5698722487253196,
    0.19109477249894044,
    0.04952521394883841,
    -23.479206780216092,
    -103.6923608119844,
    12.439444981405142,
    53.30317791102974,
    -30.41816937363777,
    57.32309531142693,
    62.4324005263234,
    7.399827313986669,
    31.622441947499496,
    -49.7026028171809,
    4.3748678685385824,
    -32.48495336750515,
    -111.42736859084663,
    15.036566976861307,
    -41.066453165145674,
    -53.51341251418177,
    6.594063425490447,
    -18.487337058512765,
    -4.053609718071941,
    -5.414576877113254,
    11.595131389753632,
    0.43992996064096457,
    29.53598102019338,
    -37.482193762175086,
    -41.96278308223641,
    0.1618396828873754,
    0.18328965615147955,
    -0.08290736851209657,
    -0.6148042737767849,
    -98.67462774847066,
    -49.48393857522172,
    20.527575328010524,
    5.131149949875839,
    35.44203530850579,
    11.483901034757498,
    43.432427468929355,
    22.006345292254878,
    28.336368715499216,
    -14.933297381858438,
    -115.7783875994384,
    -45.402519830264815,
    0.1262798387111579,
    -36.131461320299756,
    7.431780959129363,
    -26.95285179432129,
    9.417006406208856,
    7.708959166097854,
    10.006226570357544,
    -39.29427854222074,
    10.064189953297268,
    -32.93638537386965,
    -105.57327989039185,
    -62.87782682220465,
    3.385850171372332,
    0.1313194610942797,
    0.09924809229258802,
    -2.1197098499529354,
    -74.69834658704966,
    10.82071024302761,
    19.589674578007536,
    36.62181202054843,
    22.35688181509223,
    1.3799843107730014,
    -23.165171442572113,
    21.74739050204209,
    -34.097283298245884,
    0.5733250019216473,
    -71.1361377000434,
    -40.721489065575604,
    -38.34898192998022,
    -15.895321240685398,
    9.643597112100595,
    -17.052881912853696,
    5.9864216328798,
    29.97321859573112,
    -62.549346256673346,
    92.1046763544364,
    -13.006710721106197,
    -5.239414859248161,
    -53.61395122391867,
    -14.684782341017602,
    23.60695848328968,
    -0.031044472074765725,
    -0.0010331826347720202,
    -2.0606740596343185,
    -110.59240688517744,
    16.30201513374585,
    -34.63611167857294,
    5.90474818201868,
    1.9911175569851274,
    19.2950478971993,
    27.07789679365782,
    22.18028980532734,
    13.937159755071171,
    -11.668715172976624,
    -58.75411011755054,
    -48.81285856101944,
    4.61761167180175,
    -25.85967350690874,
    -12.852755973944378,
    -33.812881793821404,
    12.58341771814487,
    -42.85979138234097,
    16.531996457100444,
    -17.558044988261013,
    -37.046506556154036,
    -2.7342078922212,
    -42.5817757136281,
    -33.33981575437846,
    -20.230336741620924,
    0.14364453533523328,
    4.120429496730008,
    -0.4344013655073621,
    -111.56896398529294,
    -68.18179257011113,
    1.2515639823702331,
    17.610756877881297,
    -28.471735219121797,
    46.11988142769648,
    -31.311918026402818,
    25.039824669249132,
    0.3056912553159221,
    55.875688493100704,
    -31.645903364373574,
    -14.610282639934532,
    -22.165268747339265,
    -9.33820820126091,
    -11.839882642262276,
    22.925593743431495,
    -45.39065897960029,
    7.741921384472294,
    22.804972210839164,
    44.8552385537086,
    -48.85863907683305,
    -9.503434952704332,
    -54.06983573658992,
    -16.59998236241494,
    -6.227452897846588,
    0.053618169070385996,
    10.40468615399851,
    -18.833742449623035,
    -64.15016177836904,
    23.821478832853913,
    1.6043295071383192,
    -39.324291964978535,
    19.616503755618123,
    -4.802178153731998,
    -44.57675741386187,
    28.074149992576423,
    21.627511892518832,
    18.55530358995428,
    27.106908914529804,
    -50.32965658299195,
    28.199880185938817,
    -64.63882114673714,
    -12.129381844942955,
    16.699707627864946,
    -15.699697233733719,
    -22.82473599139784,
    -19.623444792986504,
    3.410902358057318,
    -31.699638699225904,
    -40.523805935754766,
    -51.285452171282245,
    -4.564653441918468,
    -0.06606669055490912,
    -0.07276237782538854,
    -0.08554283628719218,
    -46.40665375519968,
    -20.503458720352185,
    -0.5891608690157206,
    -3.9835735738029245,
    22.684066244476043,
    13.554285644513755,
    -23.373658902879257,
    44.075797028218936,
    32.28706374816014,
    21.01724649003764,
    5.906777060173674,
    2.947433422640834,
    -52.31418646036867,
    17.837800365141323,
    40.30332421349865,
    -90.69156261251085,
    -6.526681535524866,
    -43.77067867761174,
    -33.548488531727926,
    -39.382869321797045,
    37.84123113180901,
    -84.23083284685544,
    -15.965173871048993,
    -21.117642700956807,
    34.81144134449167,
    -0.02181027077942392,
    0.0814162730913634,
    -0.04177198137978103,
    -6.291005077306873,
    -32.182740604574605,
    -99.73752206149024,
    -0.21714080537427644,
    17.857188074804757,
    -38.14005123945577,
    13.878628541261282,
    13.244227713560953,
    -11.264464624438613,
    8.862945065738632,
    -62.501936077958575,
    86.77666276503707,
    -34.40988936948919,
    -4.2495657361517996,
    -17.95805105544997,
    42.587476590164165,
    -68.68507896539994,
    15.316970892223539,
    22.998422053687467,
    2.999007621586517,
    3.7203576364277,
    -14.709911771926482,
    -29.401447953844155,
    -5.981575059904921,
    5.948068135708932,
    0.06302476856516329,
    0.005583441123098054,
    0.13863138584353318,
    0.1743003047695786,
    -13.237101500587812,
    -127.35163112782433,
    -11.520581995095611,
    9.580813077985548,
    26.943827591652628,
    -10.411403071610355,
    25.9801584233912,
    19.959868919811665,
    19.511393937213818,
    2.3122524778234017,
    -10.421810346884895,
    30.586328973562797,
    7.059595576502474,
    -63.7394132609481,
    38.92592770083207,
    -77.12991351711386,
    -41.945427426345546,
    -90.45864178931745,
    -46.195658889967135,
    -19.480706930831644,
    -44.96550866656909,
    -37.86680284387441,
    -4.2870816754114225,
    -0.8861657091221794,
    0.14237568619137794,
    0.14038948303170998,
    0.11112675700120223,
    -1.9892831962881607,
    -2.939558841375945,
    -39.21774850523352,
    3.4131211699765385,
    -48.14089070980994,
    -47.08315907272012,
    -16.95370782197626,
    22.687044417537216,
    -1.0300680754009262,
    -67.05728088793119,
    3.162740286253011,
    -9.940738999150687,
    -5.372445517552942,
    14.861924020561727,
    -61.16672336117861,
    36.67776568605877,
    -18.14335498687412,
    -64.9756497395302,
    -85.3368167927376,
    -63.56367626477495,
    -56.1330466605333,
    -65.43327371124649,
    -13.270452907268345,
    -0.027270892367788666,
    0.15076051512717312,
    0.17838159233246328,
    0.14383379722078604,
    0.1765656670168251,
    -0.02979348259279066,
    0.1183754479238528,
    -19.386125226885685,
    -53.57293010280033,
    -106.28465616142073,
    -120.00323763951177,
    -98.8195659890938,
    -87.14519805044718,
    -132.5441463279655,
    -45.091785808348604,
    -116.38832072964328,
    -117.36418016905938,
    -143.43441997013463,
    -198.2913283823182,
    -159.1186770949899,
    -179.97164047933978,
    -189.633791124207,
    -101.88867173774496,
    -92.95173813810864,
    -82.66182817591319,
    -56.526628510383134,
    -27.689733995966506,
    -5.971157226181341,
    -0.08467035630229702,
    0.17224591299304995,
    -0.0380485481393932,
    -0.017113790207604535,
    0.03562986370477039,
    0.06634830916289691,
    0.09215716164661686,
    0.04392981551669267,
    -18.67990611404592,
    -31.940967771655195,
    -38.93156839185479,
    -50.01812941427627,
    -87.89444954166831,
    -97.62747602628667,
    -78.98735444272445,
    -63.288884583066555,
    -86.20107312771721,
    -85.97363988029905,
    -96.5285051417938,
    -93.29593249696373,
    -62.268472360773366,
    -44.76631025823445,
    -12.48836107893006,
    -44.97395534646193,
    -58.51554008640992,
    -31.473666794141554,
    -3.213902534614435,
    -0.07902230077825309,
    0.16154702419896974,
    0.1077135767025875,
    0.13333917645037863,
    -0.02463780542118879,
    0.1357975888886167,
    0.08971309975382663,
    0.05853011436407948,
    0.13888312775248482,
    -1.7268636796195713,
    -9.331330463594973,
    -6.77367750036336,
    -6.821858647908897,
    -10.530615974596952,
    -5.606333966346736,
    -2.9330760821480264,
    -10.617719429311833,
    -10.36028723267819,
    -16.145992328586864,
    -27.312882253515614,
    -21.36904682293214,
    -3.833988399547666,
    -2.4262962319652472,
    -1.4085802749879777,
    -5.035643917817258,
    -11.599887318180777,
    -35.27876647288682,
    -8.270682113876012,
    0.1989566064562794,
    0.0956193512705599,
    0.050717461027331906,
    -0.08731497475374238
  ],
  "bias": -27.371734516481247
}